digraph Tree {
node [shape=box, style="filled, rounded", color="black", fontname=helvetica] ;
edge [fontname=helvetica] ;
0 [label="age=中年 <= 0.5\ngini = 0.459\nsamples = 100.0%\nvalue = [0.357, 0.643]\nclass = 是", fillcolor="#a7d3f3"] ;
1 [label="guding=是 <= 0.5\ngini = 0.5\nsamples = 71.4%\nvalue = [0.5, 0.5]\nclass = 否", fillcolor="#ffffff"] ;
0 -> 1 [labeldistance=2.5, labelangle=45, headlabel="True"] ;
2 [label="age=壮年 <= 0.5\ngini = 0.32\nsamples = 35.7%\nvalue = [0.8, 0.2]\nclass = 否", fillcolor="#eca06a"] ;
1 -> 2 ;
3 [label="gini = 0.0\nsamples = 21.4%\nvalue = [1.0, 0.0]\nclass = 否", fillcolor="#e58139"] ;
2 -> 3 ;
4 [label="gini = 0.5\nsamples = 14.3%\nvalue = [0.5, 0.5]\nclass = 否", fillcolor="#ffffff"] ;
2 -> 4 ;
5 [label="VIP=是 <= 0.5\ngini = 0.32\nsamples = 35.7%\nvalue = [0.2, 0.8]\nclass = 是", fillcolor="#6ab6ec"] ;
1 -> 5 ;
6 [label="gini = 0.0\nsamples = 21.4%\nvalue = [0.0, 1.0]\nclass = 是", fillcolor="#399de5"] ;
5 -> 6 ;
7 [label="gini = 0.5\nsamples = 14.3%\nvalue = [0.5, 0.5]\nclass = 否", fillcolor="#ffffff"] ;
5 -> 7 ;
8 [label="gini = 0.0\nsamples = 28.6%\nvalue = [0.0, 1.0]\nclass = 是", fillcolor="#399de5"] ;
0 -> 8 [labeldistance=2.5, labelangle=-45, headlabel="False"] ;
}